digraph Tree {
node [shape=box, style="filled, rounded", color="black", fontname=helvetica] ;
edge [fontname=helvetica] ;
0 [label="petal width (cm) <= 0.8\ngini = 0.67\nsamples = 96\nvalue = [46, 51, 53]\nclass = virginica", fillcolor="#fcfbfe"] ;
1 [label="gini = 0.0\nsamples = 33\nvalue = [46, 0, 0]\nclass = setosa", fillcolor="#e58139"] ;
0 -> 1 [labeldistance=2.5, labelangle=45, headlabel="True"] ;
2 [label="petal length (cm) <= 4.85\ngini = 0.5\nsamples = 63\nvalue = [0, 51, 53]\nclass = virginica", fillcolor="#faf8fe"] ;
0 -> 2 [labeldistance=2.5, labelangle=-45, headlabel="False"] ;
3 [label="petal length (cm) <= 4.75\ngini = 0.04\nsamples = 29\nvalue = [0, 46, 1]\nclass = versicolor", fillcolor="#3de684"] ;
2 -> 3 ;
4 [label="gini = 0.0\nsamples = 26\nvalue = [0, 43, 0]\nclass = versicolor", fillcolor="#39e581"] ;
3 -> 4 ;
5 [label="sepal length (cm) <= 5.95\ngini = 0.38\nsamples = 3\nvalue = [0, 3, 1]\nclass = versicolor", fillcolor="#7beeab"] ;
3 -> 5 ;
6 [label="gini = 0.0\nsamples = 1\nvalue = [0, 2, 0]\nclass = versicolor", fillcolor="#39e581"] ;
5 -> 6 ;
7 [label="sepal width (cm) <= 2.9\ngini = 0.5\nsamples = 2\nvalue = [0, 1, 1]\nclass = versicolor", fillcolor="#ffffff"] ;
5 -> 7 ;
8 [label="gini = 0.0\nsamples = 1\nvalue = [0, 1, 0]\nclass = versicolor", fillcolor="#39e581"] ;
7 -> 8 ;
9 [label="gini = 0.0\nsamples = 1\nvalue = [0, 0, 1]\nclass = virginica", fillcolor="#8139e5"] ;
7 -> 9 ;
10 [label="petal length (cm) <= 5.15\ngini = 0.16\nsamples = 34\nvalue = [0, 5, 52]\nclass = virginica", fillcolor="#8d4ce8"] ;
2 -> 10 ;
11 [label="sepal width (cm) <= 2.9\ngini = 0.33\nsamples = 13\nvalue = [0, 5, 19]\nclass = virginica", fillcolor="#a26dec"] ;
10 -> 11 ;
12 [label="petal width (cm) <= 1.7\ngini = 0.22\nsamples = 9\nvalue = [0, 2, 14]\nclass = virginica", fillcolor="#9355e9"] ;
11 -> 12 ;
13 [label="sepal width (cm) <= 2.75\ngini = 0.48\nsamples = 3\nvalue = [0, 2, 3]\nclass = virginica", fillcolor="#d5bdf6"] ;
12 -> 13 ;
14 [label="petal width (cm) <= 1.55\ngini = 0.44\nsamples = 2\nvalue = [0, 2, 1]\nclass = versicolor", fillcolor="#9cf2c0"] ;
13 -> 14 ;
15 [label="gini = 0.0\nsamples = 1\nvalue = [0, 0, 1]\nclass = virginica", fillcolor="#8139e5"] ;
14 -> 15 ;
16 [label="gini = 0.0\nsamples = 1\nvalue = [0, 2, 0]\nclass = versicolor", fillcolor="#39e581"] ;
14 -> 16 ;
17 [label="gini = 0.0\nsamples = 1\nvalue = [0, 0, 2]\nclass = virginica", fillcolor="#8139e5"] ;
13 -> 17 ;
18 [label="gini = 0.0\nsamples = 6\nvalue = [0, 0, 11]\nclass = virginica", fillcolor="#8139e5"] ;
12 -> 18 ;
19 [label="sepal length (cm) <= 6.4\ngini = 0.47\nsamples = 4\nvalue = [0, 3, 5]\nclass = virginica", fillcolor="#cdb0f5"] ;
11 -> 19 ;
20 [label="gini = 0.0\nsamples = 2\nvalue = [0, 0, 3]\nclass = virginica", fillcolor="#8139e5"] ;
19 -> 20 ;
21 [label="petal length (cm) <= 5.05\ngini = 0.48\nsamples = 2\nvalue = [0, 3, 2]\nclass = versicolor", fillcolor="#bdf6d5"] ;
19 -> 21 ;
22 [label="gini = 0.0\nsamples = 1\nvalue = [0, 3, 0]\nclass = versicolor", fillcolor="#39e581"] ;
21 -> 22 ;
23 [label="gini = 0.0\nsamples = 1\nvalue = [0, 0, 2]\nclass = virginica", fillcolor="#8139e5"] ;
21 -> 23 ;
24 [label="gini = 0.0\nsamples = 21\nvalue = [0, 0, 33]\nclass = virginica", fillcolor="#8139e5"] ;
10 -> 24 ;
}